// Copyright (c) Microsoft Corporation. All rights reserved.
// // Licensed under the MIT license

int16_t W1[4][8] = {{7069, 3262, 5513, 4733, -2708, -10109, 5233, 4489}
, {-10390, -38, -17036, -404, -1288, -138, 226, -1100}
, {1562, -1144, -14616, 4106, -18129, 2064, 831, 2845}
, {-1993, -996, -6637, -1105, -1833, 1207, -1910, -1262}
}; //16384

int16_t U1[8][8] = {{15238, -4081, -18973, -1468, 3401, 12650, -911, -1588}
, {-1372, -2625, 23200, 5474, 7390, -3379, 5065, 7849}
, {-931, -10160, -4142, -3773, 1400, 1952, -7027, -4937}
, {-311, 3353, 10395, -410, 2437, 426, 5921, 4664}
, {3195, -2369, -20748, -7006, 5303, -2544, -1009, -11564}
, {-4775, 5477, -4431, 2161, 829, 18282, 1428, 3197}
, {-435, 4946, 11025, 4571, 1986, -2559, -1213, 4943}
, {16, 3484, 10337, 5800, 2855, 549, 5397, 561}
}; //32768

int16_t Bg1[1][8] = {{-18778, -9519, 4055, -7310, 8584, -17258, -5281, -7934}
}; //16384

int16_t Bh1[1][8] = {{9658, 19740, -10058, 19114, 17227, 12226, 19080, 15855}
}; //32768

int16_t zeta1 = 32522; //32768

int16_t nu1 = 235; //32768

int16_t W2[8][8] = {{-850, 359, -9842, 5701, 7390, -4590, -3959, 2759}
, {-1536, -6107, -1978, -5420, -1215, -5065, 77, -4658}
, {10036, -340, 745, -3625, 1684, -1927, 2312, 2028}
, {-3593, -1295, -997, -1, 1441, 2806, -1718, -3687}
, {-287, -221, -1398, 439, -1651, 3409, -19972, -193}
, {-6120, -4338, -1679, -9576, 13070, -12784, -56, -5648}
, {-5623, -2853, -862, -3739, 2595, -285, -673, -5104}
, {-3761, -842, -713, 396, 1405, 3339, -1477, -3670}
}; //16384

int16_t U2[8][8] = {{8755, 2010, -3642, -913, 5998, -2312, -389, -1571}
, {-906, 9661, -1875, -328, 4034, -3910, -355, -5117}
, {-2433, 1688, 1328, -1493, 4122, 769, -177, 9988}
, {-2759, 2240, 1795, 6117, 6542, -6011, 710, 283}
, {-3163, 5634, 15468, -1189, 704, -1739, 483, 3409}
, {-4224, 5383, -15324, -2616, 19957, 2042, -579, -319}
, {181, -1085, 863, 1111, -4614, 4177, 3342, 4059}
, {312, 996, -3600, -867, 2397, -1214, -917, 8633}
}; //16384

int16_t Bg2[1][8] = {{-5411, -15415, -13003, -12122, -18931, -17923, -8693, -12151}
}; //16384

int16_t Bh2[1][8] = {{21417, 6457, 6421, 8970, 6601, 836, 3060, 8468}
}; //16384

int16_t zeta2 = 32520; //32768

int16_t nu2 = 256; //32768

